digraph Tree {
node [shape=box] ;
0 [label="X[5] <= 2.5\ngini = 0.407\nsamples = 222\nvalue = [63, 159]"] ;
1 [label="X[8] <= 0.5\ngini = 0.279\nsamples = 155\nvalue = [26, 129]"] ;
0 -> 1 [labeldistance=2.5, labelangle=45, headlabel="True"] ;
2 [label="X[3] <= 3.5\ngini = 0.243\nsamples = 127\nvalue = [18, 109]"] ;
1 -> 2 ;
3 [label="X[1] <= 0.5\ngini = 0.233\nsamples = 126\nvalue = [17, 109]"] ;
2 -> 3 ;
4 [label="X[7] <= 3.5\ngini = 0.293\nsamples = 73\nvalue = [13, 60]"] ;
3 -> 4 ;
5 [label="X[0] <= 2.0\ngini = 0.331\nsamples = 62\nvalue = [13, 49]"] ;
4 -> 5 ;
6 [label="X[7] <= 2.5\ngini = 0.287\nsamples = 46\nvalue = [8, 38]"] ;
5 -> 6 ;
7 [label="X[0] <= 0.5\ngini = 0.219\nsamples = 40\nvalue = [5, 35]"] ;
6 -> 7 ;
8 [label="X[7] <= 1.5\ngini = 0.302\nsamples = 27\nvalue = [5, 22]"] ;
7 -> 8 ;
9 [label="X[2] <= 1.5\ngini = 0.142\nsamples = 13\nvalue = [1, 12]"] ;
8 -> 9 ;
10 [label="gini = 0.0\nsamples = 1\nvalue = [1, 0]"] ;
9 -> 10 ;
11 [label="gini = 0.0\nsamples = 12\nvalue = [0, 12]"] ;
9 -> 11 ;
12 [label="X[2] <= 2.5\ngini = 0.408\nsamples = 14\nvalue = [4, 10]"] ;
8 -> 12 ;
13 [label="gini = 0.0\nsamples = 4\nvalue = [0, 4]"] ;
12 -> 13 ;
14 [label="X[2] <= 4.5\ngini = 0.48\nsamples = 10\nvalue = [4, 6]"] ;
12 -> 14 ;
15 [label="X[5] <= 1.5\ngini = 0.48\nsamples = 5\nvalue = [3, 2]"] ;
14 -> 15 ;
16 [label="gini = 0.0\nsamples = 1\nvalue = [1, 0]"] ;
15 -> 16 ;
17 [label="X[2] <= 3.5\ngini = 0.5\nsamples = 4\nvalue = [2, 2]"] ;
15 -> 17 ;
18 [label="gini = 0.444\nsamples = 3\nvalue = [2, 1]"] ;
17 -> 18 ;
19 [label="gini = 0.0\nsamples = 1\nvalue = [0, 1]"] ;
17 -> 19 ;
20 [label="X[2] <= 6.0\ngini = 0.32\nsamples = 5\nvalue = [1, 4]"] ;
14 -> 20 ;
21 [label="gini = 0.0\nsamples = 2\nvalue = [0, 2]"] ;
20 -> 21 ;
22 [label="X[6] <= 0.5\ngini = 0.444\nsamples = 3\nvalue = [1, 2]"] ;
20 -> 22 ;
23 [label="gini = 0.0\nsamples = 1\nvalue = [0, 1]"] ;
22 -> 23 ;
24 [label="X[2] <= 8.0\ngini = 0.5\nsamples = 2\nvalue = [1, 1]"] ;
22 -> 24 ;
25 [label="gini = 0.0\nsamples = 1\nvalue = [1, 0]"] ;
24 -> 25 ;
26 [label="gini = 0.0\nsamples = 1\nvalue = [0, 1]"] ;
24 -> 26 ;
27 [label="gini = 0.0\nsamples = 13\nvalue = [0, 13]"] ;
7 -> 27 ;
28 [label="X[5] <= 1.5\ngini = 0.5\nsamples = 6\nvalue = [3, 3]"] ;
6 -> 28 ;
29 [label="gini = 0.0\nsamples = 2\nvalue = [0, 2]"] ;
28 -> 29 ;
30 [label="X[2] <= 5.0\ngini = 0.375\nsamples = 4\nvalue = [3, 1]"] ;
28 -> 30 ;
31 [label="gini = 0.0\nsamples = 3\nvalue = [3, 0]"] ;
30 -> 31 ;
32 [label="gini = 0.0\nsamples = 1\nvalue = [0, 1]"] ;
30 -> 32 ;
33 [label="X[7] <= 0.5\ngini = 0.43\nsamples = 16\nvalue = [5, 11]"] ;
5 -> 33 ;
34 [label="X[5] <= 1.5\ngini = 0.444\nsamples = 3\nvalue = [2, 1]"] ;
33 -> 34 ;
35 [label="gini = 0.0\nsamples = 2\nvalue = [2, 0]"] ;
34 -> 35 ;
36 [label="gini = 0.0\nsamples = 1\nvalue = [0, 1]"] ;
34 -> 36 ;
37 [label="X[2] <= 5.5\ngini = 0.355\nsamples = 13\nvalue = [3, 10]"] ;
33 -> 37 ;
38 [label="X[2] <= 0.5\ngini = 0.198\nsamples = 9\nvalue = [1, 8]"] ;
37 -> 38 ;
39 [label="X[6] <= 0.5\ngini = 0.5\nsamples = 2\nvalue = [1, 1]"] ;
38 -> 39 ;
40 [label="gini = 0.0\nsamples = 1\nvalue = [1, 0]"] ;
39 -> 40 ;
41 [label="gini = 0.0\nsamples = 1\nvalue = [0, 1]"] ;
39 -> 41 ;
42 [label="gini = 0.0\nsamples = 7\nvalue = [0, 7]"] ;
38 -> 42 ;
43 [label="X[6] <= 0.5\ngini = 0.5\nsamples = 4\nvalue = [2, 2]"] ;
37 -> 43 ;
44 [label="X[2] <= 6.5\ngini = 0.444\nsamples = 3\nvalue = [1, 2]"] ;
43 -> 44 ;
45 [label="gini = 0.5\nsamples = 2\nvalue = [1, 1]"] ;
44 -> 45 ;
46 [label="gini = 0.0\nsamples = 1\nvalue = [0, 1]"] ;
44 -> 46 ;
47 [label="gini = 0.0\nsamples = 1\nvalue = [1, 0]"] ;
43 -> 47 ;
48 [label="gini = 0.0\nsamples = 11\nvalue = [0, 11]"] ;
4 -> 48 ;
49 [label="X[5] <= 1.5\ngini = 0.14\nsamples = 53\nvalue = [4, 49]"] ;
3 -> 49 ;
50 [label="gini = 0.0\nsamples = 26\nvalue = [0, 26]"] ;
49 -> 50 ;
51 [label="X[2] <= 3.5\ngini = 0.252\nsamples = 27\nvalue = [4, 23]"] ;
49 -> 51 ;
52 [label="X[2] <= 0.5\ngini = 0.124\nsamples = 15\nvalue = [1, 14]"] ;
51 -> 52 ;
53 [label="gini = 0.0\nsamples = 7\nvalue = [0, 7]"] ;
52 -> 53 ;
54 [label="X[2] <= 1.5\ngini = 0.219\nsamples = 8\nvalue = [1, 7]"] ;
52 -> 54 ;
55 [label="X[7] <= 1.0\ngini = 0.5\nsamples = 2\nvalue = [1, 1]"] ;
54 -> 55 ;
56 [label="gini = 0.0\nsamples = 1\nvalue = [0, 1]"] ;
55 -> 56 ;
57 [label="gini = 0.0\nsamples = 1\nvalue = [1, 0]"] ;
55 -> 57 ;
58 [label="gini = 0.0\nsamples = 6\nvalue = [0, 6]"] ;
54 -> 58 ;
59 [label="X[2] <= 4.5\ngini = 0.375\nsamples = 12\nvalue = [3, 9]"] ;
51 -> 59 ;
60 [label="X[0] <= 1.5\ngini = 0.5\nsamples = 2\nvalue = [1, 1]"] ;
59 -> 60 ;
61 [label="gini = 0.0\nsamples = 1\nvalue = [0, 1]"] ;
60 -> 61 ;
62 [label="gini = 0.0\nsamples = 1\nvalue = [1, 0]"] ;
60 -> 62 ;
63 [label="X[7] <= 1.5\ngini = 0.32\nsamples = 10\nvalue = [2, 8]"] ;
59 -> 63 ;
64 [label="X[7] <= 0.5\ngini = 0.408\nsamples = 7\nvalue = [2, 5]"] ;
63 -> 64 ;
65 [label="X[6] <= 0.5\ngini = 0.278\nsamples = 6\nvalue = [1, 5]"] ;
64 -> 65 ;
66 [label="gini = 0.0\nsamples = 4\nvalue = [0, 4]"] ;
65 -> 66 ;
67 [label="X[0] <= 1.5\ngini = 0.5\nsamples = 2\nvalue = [1, 1]"] ;
65 -> 67 ;
68 [label="gini = 0.0\nsamples = 1\nvalue = [1, 0]"] ;
67 -> 68 ;
69 [label="gini = 0.0\nsamples = 1\nvalue = [0, 1]"] ;
67 -> 69 ;
70 [label="gini = 0.0\nsamples = 1\nvalue = [1, 0]"] ;
64 -> 70 ;
71 [label="gini = 0.0\nsamples = 3\nvalue = [0, 3]"] ;
63 -> 71 ;
72 [label="gini = 0.0\nsamples = 1\nvalue = [1, 0]"] ;
2 -> 72 ;
73 [label="X[7] <= 0.5\ngini = 0.408\nsamples = 28\nvalue = [8, 20]"] ;
1 -> 73 ;
74 [label="X[3] <= 3.5\ngini = 0.153\nsamples = 12\nvalue = [1, 11]"] ;
73 -> 74 ;
75 [label="gini = 0.0\nsamples = 10\nvalue = [0, 10]"] ;
74 -> 75 ;
76 [label="X[2] <= 1.5\ngini = 0.5\nsamples = 2\nvalue = [1, 1]"] ;
74 -> 76 ;
77 [label="gini = 0.0\nsamples = 1\nvalue = [0, 1]"] ;
76 -> 77 ;
78 [label="gini = 0.0\nsamples = 1\nvalue = [1, 0]"] ;
76 -> 78 ;
79 [label="X[1] <= 0.5\ngini = 0.492\nsamples = 16\nvalue = [7, 9]"] ;
73 -> 79 ;
80 [label="X[0] <= 0.5\ngini = 0.426\nsamples = 13\nvalue = [4, 9]"] ;
79 -> 80 ;
81 [label="X[3] <= 2.0\ngini = 0.48\nsamples = 10\nvalue = [4, 6]"] ;
80 -> 81 ;
82 [label="X[3] <= 0.5\ngini = 0.5\nsamples = 8\nvalue = [4, 4]"] ;
81 -> 82 ;
83 [label="X[2] <= 2.5\ngini = 0.49\nsamples = 7\nvalue = [3, 4]"] ;
82 -> 83 ;
84 [label="gini = 0.0\nsamples = 1\nvalue = [1, 0]"] ;
83 -> 84 ;
85 [label="X[5] <= 1.5\ngini = 0.444\nsamples = 6\nvalue = [2, 4]"] ;
83 -> 85 ;
86 [label="gini = 0.0\nsamples = 2\nvalue = [0, 2]"] ;
85 -> 86 ;
87 [label="X[6] <= 0.5\ngini = 0.5\nsamples = 4\nvalue = [2, 2]"] ;
85 -> 87 ;
88 [label="gini = 0.0\nsamples = 1\nvalue = [1, 0]"] ;
87 -> 88 ;
89 [label="X[2] <= 4.0\ngini = 0.444\nsamples = 3\nvalue = [1, 2]"] ;
87 -> 89 ;
90 [label="gini = 0.0\nsamples = 1\nvalue = [1, 0]"] ;
89 -> 90 ;
91 [label="gini = 0.0\nsamples = 2\nvalue = [0, 2]"] ;
89 -> 91 ;
92 [label="gini = 0.0\nsamples = 1\nvalue = [1, 0]"] ;
82 -> 92 ;
93 [label="gini = 0.0\nsamples = 2\nvalue = [0, 2]"] ;
81 -> 93 ;
94 [label="gini = 0.0\nsamples = 3\nvalue = [0, 3]"] ;
80 -> 94 ;
95 [label="gini = 0.0\nsamples = 3\nvalue = [3, 0]"] ;
79 -> 95 ;
96 [label="X[3] <= 2.5\ngini = 0.495\nsamples = 67\nvalue = [37, 30]"] ;
0 -> 96 [labeldistance=2.5, labelangle=-45, headlabel="False"] ;
97 [label="X[3] <= 0.5\ngini = 0.497\nsamples = 54\nvalue = [25, 29]"] ;
96 -> 97 ;
98 [label="X[0] <= 1.5\ngini = 0.478\nsamples = 38\nvalue = [15, 23]"] ;
97 -> 98 ;
99 [label="X[2] <= 3.5\ngini = 0.403\nsamples = 25\nvalue = [7, 18]"] ;
98 -> 99 ;
100 [label="X[1] <= 0.5\ngini = 0.492\nsamples = 16\nvalue = [7, 9]"] ;
99 -> 100 ;
101 [label="X[7] <= 2.5\ngini = 0.497\nsamples = 13\nvalue = [7, 6]"] ;
100 -> 101 ;
102 [label="X[2] <= 0.5\ngini = 0.469\nsamples = 8\nvalue = [3, 5]"] ;
101 -> 102 ;
103 [label="gini = 0.0\nsamples = 1\nvalue = [1, 0]"] ;
102 -> 103 ;
104 [label="X[2] <= 2.5\ngini = 0.408\nsamples = 7\nvalue = [2, 5]"] ;
102 -> 104 ;
105 [label="gini = 0.0\nsamples = 4\nvalue = [0, 4]"] ;
104 -> 105 ;
106 [label="X[8] <= 0.5\ngini = 0.444\nsamples = 3\nvalue = [2, 1]"] ;
104 -> 106 ;
107 [label="gini = 0.0\nsamples = 1\nvalue = [1, 0]"] ;
106 -> 107 ;
108 [label="X[7] <= 1.0\ngini = 0.5\nsamples = 2\nvalue = [1, 1]"] ;
106 -> 108 ;
109 [label="gini = 0.0\nsamples = 1\nvalue = [0, 1]"] ;
108 -> 109 ;
110 [label="gini = 0.0\nsamples = 1\nvalue = [1, 0]"] ;
108 -> 110 ;
111 [label="X[6] <= 0.5\ngini = 0.32\nsamples = 5\nvalue = [4, 1]"] ;
101 -> 111 ;
112 [label="X[4] <= 0.5\ngini = 0.444\nsamples = 3\nvalue = [2, 1]"] ;
111 -> 112 ;
113 [label="gini = 0.0\nsamples = 1\nvalue = [1, 0]"] ;
112 -> 113 ;
114 [label="gini = 0.5\nsamples = 2\nvalue = [1, 1]"] ;
112 -> 114 ;
115 [label="gini = 0.0\nsamples = 2\nvalue = [2, 0]"] ;
111 -> 115 ;
116 [label="gini = 0.0\nsamples = 3\nvalue = [0, 3]"] ;
100 -> 116 ;
117 [label="gini = 0.0\nsamples = 9\nvalue = [0, 9]"] ;
99 -> 117 ;
118 [label="X[2] <= 0.5\ngini = 0.473\nsamples = 13\nvalue = [8, 5]"] ;
98 -> 118 ;
119 [label="gini = 0.0\nsamples = 1\nvalue = [0, 1]"] ;
118 -> 119 ;
120 [label="X[7] <= 0.5\ngini = 0.444\nsamples = 12\nvalue = [8, 4]"] ;
118 -> 120 ;
121 [label="gini = 0.0\nsamples = 4\nvalue = [4, 0]"] ;
120 -> 121 ;
122 [label="X[7] <= 3.0\ngini = 0.5\nsamples = 8\nvalue = [4, 4]"] ;
120 -> 122 ;
123 [label="X[2] <= 1.5\ngini = 0.49\nsamples = 7\nvalue = [3, 4]"] ;
122 -> 123 ;
124 [label="gini = 0.0\nsamples = 1\nvalue = [1, 0]"] ;
123 -> 124 ;
125 [label="X[6] <= 0.5\ngini = 0.444\nsamples = 6\nvalue = [2, 4]"] ;
123 -> 125 ;
126 [label="X[7] <= 1.5\ngini = 0.444\nsamples = 3\nvalue = [2, 1]"] ;
125 -> 126 ;
127 [label="gini = 0.0\nsamples = 1\nvalue = [1, 0]"] ;
126 -> 127 ;
128 [label="X[2] <= 5.0\ngini = 0.5\nsamples = 2\nvalue = [1, 1]"] ;
126 -> 128 ;
129 [label="gini = 0.0\nsamples = 1\nvalue = [0, 1]"] ;
128 -> 129 ;
130 [label="gini = 0.0\nsamples = 1\nvalue = [1, 0]"] ;
128 -> 130 ;
131 [label="gini = 0.0\nsamples = 3\nvalue = [0, 3]"] ;
125 -> 131 ;
132 [label="gini = 0.0\nsamples = 1\nvalue = [1, 0]"] ;
122 -> 132 ;
133 [label="X[7] <= 1.0\ngini = 0.469\nsamples = 16\nvalue = [10, 6]"] ;
97 -> 133 ;
134 [label="X[4] <= 0.5\ngini = 0.48\nsamples = 5\nvalue = [2, 3]"] ;
133 -> 134 ;
135 [label="gini = 0.0\nsamples = 3\nvalue = [0, 3]"] ;
134 -> 135 ;
136 [label="gini = 0.0\nsamples = 2\nvalue = [2, 0]"] ;
134 -> 136 ;
137 [label="X[4] <= 0.5\ngini = 0.397\nsamples = 11\nvalue = [8, 3]"] ;
133 -> 137 ;
138 [label="X[1] <= 0.5\ngini = 0.219\nsamples = 8\nvalue = [7, 1]"] ;
137 -> 138 ;
139 [label="gini = 0.0\nsamples = 5\nvalue = [5, 0]"] ;
138 -> 139 ;
140 [label="X[6] <= 0.5\ngini = 0.444\nsamples = 3\nvalue = [2, 1]"] ;
138 -> 140 ;
141 [label="gini = 0.0\nsamples = 2\nvalue = [2, 0]"] ;
140 -> 141 ;
142 [label="gini = 0.0\nsamples = 1\nvalue = [0, 1]"] ;
140 -> 142 ;
143 [label="X[0] <= 0.5\ngini = 0.444\nsamples = 3\nvalue = [1, 2]"] ;
137 -> 143 ;
144 [label="gini = 0.0\nsamples = 1\nvalue = [1, 0]"] ;
143 -> 144 ;
145 [label="gini = 0.0\nsamples = 2\nvalue = [0, 2]"] ;
143 -> 145 ;
146 [label="X[2] <= 0.5\ngini = 0.142\nsamples = 13\nvalue = [12, 1]"] ;
96 -> 146 ;
147 [label="gini = 0.0\nsamples = 1\nvalue = [0, 1]"] ;
146 -> 147 ;
148 [label="gini = 0.0\nsamples = 12\nvalue = [12, 0]"] ;
146 -> 148 ;
}
